/*!
 * The following copyright notice may not be removed under any circumstances.
 * 
 * Copyright:
 * Typeface © The Monotype Corporation plc. Data © The Monotype Corporation plc /
 * Type Solutions Inc. 1990-91 All Rights Reserved
 * 
 * Trademark:
 * Century Gothic is a trademark of The Monotype Corporation plc.
 * 
 * Description:
 * A design based on Monotype 20th Century, which was drawn by Sol Hess between
 * 1936 and 1947. Century Gothic maintains the basic design of 20th Century but has
 * an enlarged 'x' height and has been modified to ensure satisfactory output from
 * modern digital systems. The design is influenced by the geometric style sans
 * serif faces which were popular during the 1920's and 30's. Useful for headlines
 * and general display work and for small quantities of text, particularly in
 * advertising.
 * 
 * Manufacturer:
 * Monotype Typography, Inc.
 * 
 * Designer:
 * Monotype Type Drawing Office
 * 
 * Vendor URL:
 * http://www.monotype.com/html/mtname/ms_welcome.html
 * 
 * License information:
 * http://www.monotype.com/html/type/license.html
 */
Cufon.registerFont({"w":1135,"face":{"font-family":"Century Gothic","font-weight":400,"font-stretch":"normal","units-per-em":"2048","panose-1":"2 11 5 2 2 2 2 2 2 4","ascent":"1638","descent":"-410","x-height":"28","bbox":"-64 -1598 1870 452.73","underline-thickness":"119","underline-position":"-138","unicode-range":"U+0020-U+007E"},"glyphs":{" ":{"w":567},"!":{"d":"373,-1508r0,1140r-145,0r0,-1140r145,0xm179,-96v0,-67,56,-124,123,-124v67,0,123,57,123,124v0,66,-57,124,-123,124v-66,0,-123,-58,-123,-124","w":604},"\"":{"d":"562,-1045r-103,0r-22,-463r148,0xm174,-1045r-104,0r-22,-463r148,0","w":633},"#":{"d":"1233,-602r0,108r-248,0r-72,494r-112,0r72,-494r-333,0r-76,494r-110,0r76,-494r-246,0r0,-108r263,0r51,-334r-253,0r0,-109r269,0r70,-468r107,0r-68,468r332,0r68,-468r112,0r-69,468r224,0r0,109r-240,0r-48,334r231,0xm940,-936r-334,0r-49,334r332,0","w":1475},"$":{"d":"531,-1574r131,0r0,109v147,29,221,90,301,200r-108,87v-51,-79,-116,-127,-193,-144r0,499v175,92,283,167,326,224v97,127,114,310,22,445v-76,110,-172,170,-348,190r0,313r-131,0r0,-313v-166,-14,-242,-46,-341,-126v-47,-39,-87,-85,-118,-136r107,-81v93,123,210,191,352,205r0,-619v-105,-51,-171,-86,-199,-105v-99,-69,-167,-146,-167,-293v0,-214,152,-332,366,-352r0,-103xm531,-1332v-134,10,-220,79,-220,210v0,48,14,89,42,122v37,45,97,86,178,123r0,-455xm662,-106v139,-15,266,-112,266,-247v0,-57,-19,-110,-56,-159v-37,-49,-107,-101,-210,-156r0,562"},"%":{"d":"793,-1462v197,-6,286,-23,470,-74r118,0r-1072,1638r-132,0r975,-1492v-126,31,-298,46,-476,41v164,221,-21,535,-287,535v-188,0,-346,-158,-343,-345v4,-204,148,-349,343,-349v110,0,267,50,404,46xm612,-1161v0,-118,-102,-220,-220,-220v-118,0,-219,102,-219,220v0,118,101,219,219,219v118,0,220,-101,220,-219xm849,-303v0,-185,161,-346,346,-346v185,0,346,161,346,346v0,185,-161,346,-346,346v-185,0,-346,-161,-346,-346xm1415,-303v0,-118,-102,-219,-220,-219v-118,0,-219,101,-219,219v0,118,101,219,219,219v118,0,220,-101,220,-219","w":1587},"&":{"d":"671,-1418v178,3,324,99,324,269v0,49,-17,101,-52,157v-35,56,-103,127,-205,214r223,234r153,153r178,-153r100,106v-64,57,-122,106,-173,147r147,151v51,51,94,97,131,140r-205,0r-189,-197v-127,96,-228,159,-305,189v-77,30,-158,45,-243,45v-213,0,-377,-140,-376,-341v0,-73,23,-146,69,-220v46,-74,141,-167,284,-280v-81,-97,-133,-170,-156,-216v-23,-46,-34,-90,-34,-132v-1,-164,162,-270,329,-266xm665,-1277v-121,0,-220,95,-156,203v33,57,79,119,138,186v71,-55,125,-110,161,-163v25,-38,38,-72,38,-101v-2,-78,-88,-125,-181,-125xm326,-314v-1,116,120,213,245,213v52,0,103,-11,153,-32v79,-34,172,-89,279,-166r-240,-246r-134,-148v-125,94,-206,169,-245,225v-39,56,-58,107,-58,154","w":1550},"'":{"d":"254,-1045r-103,0r-22,-463r148,0","w":405},"(":{"d":"267,-495v1,-394,78,-757,203,-1041r162,0v-127,259,-216,640,-216,1022v0,348,64,696,167,940r-154,0v-99,-237,-163,-581,-162,-921","w":756},")":{"d":"489,-614v0,393,-78,757,-203,1040r-162,0v128,-258,216,-639,216,-1022v0,-348,-64,-696,-167,-940r154,0v100,236,163,582,162,922","w":756},"*":{"d":"369,-1508r130,0r-29,297r246,-176r66,112r-277,125r277,123r-66,113r-246,-174r29,297r-130,0r31,-297r-246,174r-66,-113r281,-123r-281,-125r66,-112r246,176","w":870},"+":{"d":"552,-804r0,-434r137,0r0,434r438,0r0,137r-438,0r0,434r-137,0r0,-434r-437,0r0,-137r437,0","w":1241},",":{"d":"295,-270r135,64r-203,378r-99,-42","w":567},"-":{"d":"65,-614r550,0r0,122r-550,0r0,-122","w":680},"\u00ad":{"d":"65,-614r550,0r0,122r-550,0r0,-122","w":680},".":{"d":"187,-96v0,-67,56,-124,123,-124v67,0,123,57,123,124v0,66,-57,124,-123,124v-66,0,-123,-58,-123,-124","w":567},"\/":{"d":"836,-1508r-611,1708r-153,0r610,-1708r154,0","w":895},"0":{"d":"128,-286v-79,-192,-78,-707,0,-899v74,-181,209,-323,431,-323v227,0,364,144,443,330v85,201,84,683,0,884v-78,186,-216,331,-443,331v-222,0,-356,-141,-431,-323xm249,-1110v-57,149,-55,604,-1,754v51,141,157,260,316,260v291,0,365,-311,367,-636v1,-262,-52,-465,-185,-570v-112,-89,-253,-87,-366,0v-57,44,-99,108,-131,192"},"1":{"d":"379,-1471r289,0r0,1471r-146,0r0,-1327r-231,0"},"2":{"d":"578,-1368v-203,4,-330,152,-341,358r-141,0v1,-277,214,-498,490,-498v256,0,456,199,454,440v0,83,-18,162,-60,234v-120,206,-422,492,-599,692r679,0r0,142r-999,0r562,-607v114,-122,189,-212,223,-271v34,-59,51,-122,51,-187v0,-165,-149,-307,-319,-303"},"3":{"d":"552,-1365v-161,7,-227,93,-281,235r-150,0v45,-216,194,-378,431,-378v235,0,423,152,423,380v0,127,-63,227,-189,301v147,55,275,209,270,388v-8,280,-208,476,-501,476v-278,0,-440,-174,-483,-431r144,0v45,184,143,279,341,288v257,12,450,-262,305,-482v-78,-118,-176,-148,-382,-160r0,-135v178,-4,338,-76,342,-246v3,-133,-127,-242,-270,-236"},"4":{"d":"872,-1508r30,0r0,1025r178,0r0,141r-178,0r0,342r-147,0r0,-342r-703,0xm755,-483r0,-613r-433,613r433,0"},"5":{"d":"894,-485v0,-199,-142,-335,-345,-335v-87,0,-192,26,-315,79r136,-730r637,0r0,140r-524,0r-73,401v345,-113,644,120,635,451v-8,306,-199,513,-513,516v-243,3,-423,-173,-449,-393r151,0v28,157,137,250,307,256v196,7,353,-179,353,-385"},"6":{"d":"584,37v-325,6,-531,-313,-410,-639v24,-66,68,-147,131,-240r446,-666r121,79r-397,602v302,-110,574,125,569,411v-5,272,-193,448,-460,453xm899,-415v0,-167,-143,-310,-309,-310v-167,0,-309,143,-309,310v0,166,143,309,309,309v166,0,309,-143,309,-309"},"7":{"d":"147,-1471r933,0r-787,1508r-121,-62r680,-1307r-705,0r0,-139"},"8":{"d":"997,-1120v0,160,-91,248,-210,313v166,84,278,178,278,385v0,268,-215,459,-500,459v-163,0,-286,-46,-370,-139v-84,-93,-126,-196,-126,-308v0,-210,116,-311,286,-397v-122,-62,-216,-161,-216,-317v0,-228,196,-384,436,-384v237,0,422,158,422,388xm849,-1126v0,-134,-121,-239,-281,-239v-148,0,-280,104,-280,242v0,132,145,262,285,257v154,-5,276,-111,276,-260xm918,-419v2,-166,-167,-314,-343,-314v-189,0,-364,150,-358,328v6,189,148,303,350,303v197,0,349,-138,351,-317"},"9":{"d":"559,-1508v326,0,532,314,411,640v-24,66,-68,147,-131,240r-446,665r-121,-78r397,-602v-386,141,-707,-282,-510,-641v68,-123,220,-223,400,-224xm244,-1055v0,166,143,309,309,309v167,0,310,-143,310,-309v0,-167,-143,-309,-310,-309v-166,0,-309,143,-309,309"},":":{"d":"187,-992v0,-66,57,-124,123,-124v67,0,123,57,123,124v0,67,-56,124,-123,124v-67,0,-123,-57,-123,-124xm187,-96v0,-67,56,-124,123,-124v67,0,123,57,123,124v0,66,-57,124,-123,124v-66,0,-123,-58,-123,-124","w":567},";":{"d":"187,-992v0,-66,57,-124,123,-124v67,0,123,57,123,124v0,67,-56,124,-123,124v-67,0,-123,-57,-123,-124xm295,-270r135,64r-203,378r-99,-42","w":567},"\u037e":{"d":"187,-992v0,-66,57,-124,123,-124v67,0,123,57,123,124v0,67,-56,124,-123,124v-67,0,-123,-57,-123,-124xm295,-270r135,64r-203,378r-99,-42","w":567},"<":{"d":"1137,-347r0,146r-1033,-469r0,-130r1033,-471r0,147r-839,390","w":1241},"=":{"d":"1127,-1024r0,137r-1012,0r0,-137r1012,0xm1127,-584r0,137r-1012,0r0,-137r1012,0","w":1241},">":{"d":"104,-347r839,-387r-839,-390r0,-147r1033,471r0,130r-1033,469r0,-146","w":1241},"?":{"d":"610,-1368v-178,4,-293,106,-295,297r-145,0v-1,-264,174,-437,438,-437v237,0,420,132,420,345v0,111,-55,178,-123,237v-62,54,-412,181,-453,224v-104,108,17,252,161,244v143,-8,202,-74,217,-212r146,0v-7,216,-143,352,-363,352v-235,0,-431,-186,-327,-404v52,-108,112,-119,257,-181v143,-61,236,-103,277,-132v40,-29,60,-71,60,-126v-2,-128,-125,-210,-270,-207xm484,-96v0,-67,56,-124,123,-124v67,0,123,57,123,124v0,66,-57,124,-123,124v-66,0,-123,-58,-123,-124","w":1210},"@":{"d":"928,-61v252,0,361,-89,516,-240r106,0v-165,209,-309,328,-617,328v-317,0,-570,-171,-693,-386v-137,-238,-133,-552,2,-791v124,-220,361,-382,678,-390v373,-10,718,293,718,644v0,264,-138,441,-321,533v-75,39,-140,58,-193,58v-72,0,-120,-30,-119,-111v-40,53,-128,101,-217,101v-197,0,-332,-157,-332,-363v0,-236,174,-479,428,-469v140,6,196,52,260,148r26,-138r108,0r-116,654v-13,54,-2,90,45,90v113,0,255,-139,301,-245v32,-73,52,-151,52,-238v0,-330,-301,-582,-645,-576v-285,5,-496,147,-607,342v-121,213,-122,492,0,704v112,195,333,345,620,345xm600,-696v0,154,93,270,238,268v183,-2,256,-205,260,-385v3,-127,-80,-227,-203,-227v-166,0,-295,165,-295,344","w":1776},"A":{"d":"780,-1471r686,1471r-158,0r-231,-484r-634,0r-230,484r-164,0r695,-1471r36,0xm762,-1159r-253,533r503,0","w":1515},"B":{"d":"1030,-584v133,305,-119,584,-443,584r-404,0r0,-1471v188,3,438,-14,559,41v113,51,203,167,203,319v0,149,-80,252,-189,309v139,47,223,101,274,218xm792,-1111v0,-156,-115,-218,-295,-216r-170,0r0,471v111,2,252,-4,309,-28v85,-35,156,-117,156,-227xm327,-708r0,564v138,0,338,3,418,-32v88,-38,166,-128,166,-243v0,-146,-109,-239,-240,-271v-53,-13,-226,-19,-344,-18","w":1176},"C":{"d":"111,-744v0,-428,358,-772,794,-764v294,5,516,129,644,310r-116,89v-114,-150,-284,-254,-526,-254v-253,0,-462,139,-559,311v-54,96,-82,202,-82,321v0,356,289,629,650,629v206,0,378,-81,517,-242r116,88v-135,173,-350,287,-642,293v-457,9,-796,-329,-796,-781","w":1665},"D":{"d":"179,0r0,-1471v257,-1,640,0,784,53v269,99,455,348,455,701v0,297,-150,531,-344,637v-193,105,-586,74,-895,80xm320,-139v199,2,504,-7,593,-38v211,-73,356,-262,356,-538v0,-293,-158,-499,-390,-571v-97,-30,-349,-45,-559,-42r0,1189","w":1524},"E":{"d":"180,-1471r843,0r0,145r-696,0r0,460r690,0r0,144r-690,0r0,577r690,0r0,145r-837,0r0,-1471","w":1098},"F":{"d":"179,-1471r737,0r0,145r-591,0r0,460r591,0r0,145r-591,0r0,721r-146,0r0,-1471","w":993},"G":{"d":"1685,-705v3,446,-293,742,-739,742v-272,0,-485,-95,-646,-278v-207,-237,-243,-598,-78,-884v128,-221,372,-383,702,-383v304,0,494,114,674,284r-114,108v-135,-135,-324,-246,-555,-246v-368,0,-658,256,-658,623v0,376,291,629,679,636v300,5,537,-195,570,-460r-469,0r0,-142r634,0","w":1786},"H":{"d":"177,-1471r148,0r0,617r748,0r0,-617r148,0r0,1471r-148,0r0,-710r-748,0r0,710r-148,0r0,-1471","w":1399},"I":{"d":"158,-1471r147,0r0,1471r-147,0r0,-1471","w":463},"J":{"d":"164,-236v115,73,160,136,289,136v91,0,164,-64,187,-139v13,-42,20,-123,20,-244r0,-988r148,0r0,993v-3,269,-16,365,-154,462v-97,68,-254,69,-376,18v-58,-23,-122,-63,-192,-121","w":987},"K":{"d":"179,-1471r150,0r0,552r587,-552r199,0r-707,660r762,811r-195,0r-646,-686r0,686r-150,0r0,-1471","w":1210},"L":{"d":"179,-1471r148,0r0,1329r565,0r0,142r-713,0r0,-1471","w":946},"M":{"d":"112,0r209,-1471r24,0r598,1207r592,-1207r24,0r211,1471r-145,0r-144,-1052r-520,1052r-37,0r-527,-1060r-143,1060r-142,0","w":1882},"N":{"d":"180,0r0,-1471r32,0r978,1126r0,-1126r145,0r0,1471r-33,0r-970,-1112r0,1112r-152,0","w":1515},"O":{"d":"892,37v-421,0,-784,-350,-777,-766v5,-309,170,-557,382,-677v119,-67,246,-102,383,-102v432,0,784,344,784,772v0,420,-352,773,-772,773xm268,-729v0,338,285,629,619,623v249,-4,446,-139,543,-310v105,-187,106,-450,0,-636v-96,-167,-300,-312,-543,-312v-241,0,-444,145,-537,314v-53,97,-82,203,-82,321","w":1780},"P":{"d":"178,-1471r293,0v168,0,281,7,340,22v161,39,286,172,286,370v0,205,-122,327,-293,371v-67,17,-311,26,-479,24r0,684r-147,0r0,-1471xm325,-1328r0,500v149,0,371,11,470,-24v125,-44,200,-233,110,-362v-67,-96,-140,-114,-320,-114r-260,0","w":1212},"Q":{"d":"1666,-735v-6,265,-101,430,-253,575r218,276r-181,0r-150,-190v-120,74,-255,111,-406,111v-421,0,-784,-350,-777,-766v5,-309,171,-558,383,-677v119,-67,249,-102,390,-102v425,0,785,349,776,773xm270,-729v0,338,283,623,618,623v117,0,223,-28,320,-85r-328,-416r179,0r263,332v204,-185,253,-520,110,-777v-93,-168,-299,-312,-541,-312v-243,0,-445,143,-539,314v-53,97,-82,203,-82,321","w":1784},"R":{"d":"187,-1471r293,0v163,0,274,7,332,20v165,36,301,174,295,371v-9,283,-194,400,-508,396r529,684r-182,0r-528,-684r-84,0r0,684r-147,0r0,-1471xm334,-1327r0,500v150,-1,369,9,470,-26v125,-44,200,-233,110,-361v-67,-96,-140,-113,-321,-113r-259,0","w":1243},"S":{"d":"888,-359v0,213,-198,405,-417,396v-233,-10,-341,-127,-444,-311r125,-75v88,162,190,243,305,243v152,0,272,-99,272,-250v0,-49,-17,-98,-50,-145v-46,-65,-130,-144,-252,-236v-123,-93,-199,-160,-229,-201v-52,-70,-78,-144,-78,-225v0,-208,150,-345,357,-345v197,0,275,95,386,241r-120,91v-92,-113,-124,-171,-269,-180v-146,-9,-254,143,-182,280v62,119,97,120,263,245v126,96,215,178,262,251v47,73,71,147,71,221","w":1020},"T":{"d":"33,-1328r0,-143r807,0r0,143r-328,0r0,1328r-150,0r0,-1328r-329,0","w":872},"U":{"d":"184,-1471r147,0r0,888v1,200,-5,240,57,343v65,106,277,181,430,106v88,-44,150,-115,178,-219v10,-37,15,-114,15,-230r0,-888r147,0r0,888v-3,271,-39,406,-192,530v-151,122,-428,113,-585,5v-84,-58,-141,-132,-170,-225v-18,-57,-27,-161,-27,-310r0,-888","w":1341},"V":{"d":"67,-1471r160,0r487,1137r496,-1137r160,0r-640,1471r-32,0","w":1438},"W":{"d":"96,-1471r151,0r299,1060r422,-1060r30,0r417,1060r305,-1060r150,0r-422,1471r-28,0r-436,-1113r-445,1113r-28,0","w":1966},"X":{"d":"101,-1471r172,0r352,574r355,-574r170,0r-438,713r467,758r-172,0r-382,-617r-384,617r-172,0r469,-758","w":1247},"Y":{"d":"63,-1471r170,0r376,606r370,-606r170,0r-466,768r0,703r-145,0r0,-703","w":1212},"Z":{"d":"122,-1329r0,-142r776,0r-615,1328r584,0r0,143r-811,0r619,-1329r-553,0","w":983},"[":{"d":"290,-1508r336,0r0,142r-196,0r0,1627r196,0r0,137r-336,0r0,-1906","w":719},"\\":{"d":"220,-1508r952,1708r-153,0r-953,-1708r154,0","w":1239},"]":{"d":"429,398r-336,0r0,-142r195,0r0,-1627r-195,0r0,-137r336,0r0,1906","w":719},"^":{"d":"629,-1471r118,0r510,1106r-133,0r-439,-952r-436,952r-129,0","w":1376},"_":{"d":"-12,154r1048,0r0,102r-1048,0r0,-102","w":1024},"`":{"d":"326,-1598r218,308r-138,0r-295,-308r215,0","w":774},"a":{"d":"669,-1116v206,5,337,94,433,228r0,-200r138,0r0,1088r-138,0r0,-187v-103,125,-234,210,-437,215v-303,7,-558,-267,-558,-575v0,-303,260,-576,562,-569xm1111,-538v4,-243,-191,-448,-431,-443v-254,6,-432,188,-432,439v0,249,180,442,431,442v252,0,427,-177,432,-438","w":1399},"b":{"d":"736,28v-206,-5,-335,-95,-432,-228r0,200r-139,0r0,-1508r139,0r0,607v103,-126,232,-210,436,-215v303,-7,558,267,558,574v0,304,-260,577,-562,570xm294,-550v-4,243,191,448,431,443v254,-6,432,-188,432,-439v0,-249,-179,-443,-430,-443v-252,0,-428,178,-433,439","w":1397},"c":{"d":"703,28v-327,6,-602,-248,-598,-563v3,-233,134,-416,298,-505v147,-79,344,-100,519,-43v134,44,223,110,290,221r-111,69v-96,-127,-227,-191,-393,-191v-253,0,-469,194,-462,439v7,263,191,445,463,445v160,0,291,-64,392,-191r111,73v-97,147,-274,242,-509,246","w":1325},"d":{"d":"671,-1116v206,5,337,94,433,228r0,-620r138,0r0,1508r-138,0r0,-187v-103,125,-234,210,-437,215v-303,7,-558,-267,-558,-575v0,-303,260,-576,562,-569xm1113,-538v4,-243,-191,-448,-431,-443v-254,6,-432,188,-432,439v0,249,180,442,431,442v252,0,427,-177,432,-438","w":1403},"e":{"d":"248,-533v-5,295,272,518,572,404v129,-49,175,-106,252,-232r118,62v-101,193,-244,327,-520,327v-177,0,-316,-58,-416,-174v-100,-116,-150,-248,-150,-395v0,-312,248,-575,558,-575v317,0,567,244,564,583r-978,0xm1072,-654v-37,-147,-101,-230,-223,-287v-158,-74,-343,-46,-460,62v-55,51,-98,125,-127,225r810,0","w":1331},"f":{"d":"604,-1508r0,137v-76,-31,-138,-53,-200,-17v-52,30,-41,49,-41,153r0,147r227,0r0,120r-228,0r0,968r-140,0r0,-968r-143,0r0,-120r143,0v1,-107,-6,-273,22,-337v50,-114,212,-136,360,-83","w":643},"g":{"d":"662,-1116v204,0,321,87,431,217r0,-189r141,0r0,867v0,153,-14,264,-40,335v-70,194,-259,316,-518,312v-301,-5,-467,-115,-562,-340r152,0v79,137,197,210,403,212v180,2,321,-77,382,-188v32,-58,45,-191,42,-317v-92,119,-242,207,-435,207v-322,0,-558,-225,-558,-552v0,-224,125,-401,282,-488v89,-50,182,-76,280,-76xm1100,-553v-3,-256,-172,-428,-420,-428v-256,0,-433,181,-439,436v-5,239,186,413,431,413v252,0,431,-171,428,-421","w":1378},"h":{"d":"296,-893v97,-127,215,-220,408,-223v173,-3,302,100,356,228v29,70,45,179,45,328r0,560r-140,0r0,-519v0,-125,-5,-209,-15,-251v-32,-135,-116,-216,-274,-217v-178,-1,-326,142,-360,292v-31,141,-17,493,-20,695r-140,0r0,-1508r140,0r0,615","w":1249},"i":{"d":"90,-1420v0,-62,54,-116,115,-116v62,0,116,54,116,116v0,61,-54,115,-116,115v-61,0,-115,-54,-115,-115xm135,-1088r141,0r0,1088r-141,0r0,-1088","w":410},"j":{"d":"93,-1420v0,-62,53,-116,115,-116v62,0,115,54,115,116v0,61,-53,115,-115,115v-62,0,-115,-54,-115,-115xm37,295v85,0,102,-55,102,-172r0,-1211r142,0r0,1252v1,159,-50,262,-185,262v-47,0,-101,-11,-160,-34r0,-126v37,19,71,29,101,29","w":416},"k":{"d":"155,-1508r141,0r0,858r503,-438r206,0r-597,519r632,569r-198,0r-546,-489r0,489r-141,0r0,-1508","w":1028},"l":{"d":"135,-1508r140,0r0,1508r-140,0r0,-1508","w":410},"m":{"d":"1011,-855v78,-146,207,-261,401,-261v163,0,278,92,328,216v27,68,42,170,42,306r0,594r-143,0r0,-594v-3,-203,-7,-274,-111,-346v-94,-66,-240,-50,-330,20v-137,106,-163,219,-163,494r0,426r-139,0r0,-557v-4,-224,-2,-300,-110,-381v-92,-69,-233,-53,-326,16v-130,96,-166,213,-166,461r0,461r-139,0r0,-1088r139,0r0,188v86,-128,199,-216,373,-216v190,0,294,100,344,261","w":1921},"n":{"d":"296,-893v96,-128,214,-223,408,-223v173,0,303,101,356,229v29,70,45,179,45,327r0,560r-139,0r0,-519v0,-125,-6,-209,-16,-251v-32,-135,-116,-216,-274,-217v-178,-1,-326,142,-360,292v-32,142,-17,493,-20,695r-140,0r0,-1088r140,0r0,195","w":1249},"o":{"d":"104,-541v0,-311,257,-575,567,-575v311,0,566,264,566,575v0,303,-249,569,-566,569v-318,0,-567,-265,-567,-569xm1095,-538v8,-233,-196,-441,-424,-441v-229,0,-432,208,-424,441v8,250,171,433,424,433v252,0,416,-183,424,-433","w":1341},"p":{"d":"733,28v-202,-4,-334,-91,-436,-215r0,585r-139,0r0,-1486r139,0r0,200v98,-134,226,-223,432,-228v302,-7,562,266,562,569v0,308,-255,582,-558,575xm1150,-542v0,-250,-178,-433,-432,-439v-240,-5,-435,200,-431,443v5,261,181,438,433,438v250,0,430,-193,430,-442","w":1397},"q":{"d":"668,-1116v206,5,337,94,433,228r0,-200r138,0r0,1486r-138,0r0,-585v-103,125,-234,210,-437,215v-303,7,-558,-267,-558,-575v0,-303,260,-576,562,-569xm1110,-538v4,-243,-191,-448,-431,-443v-254,6,-432,188,-432,439v0,249,180,442,431,442v252,0,427,-177,432,-438","w":1397},"r":{"d":"246,-929v83,-130,233,-246,407,-150r-73,118v-85,-38,-142,-17,-209,39v-44,37,-76,97,-99,178v-36,123,-24,531,-26,744r-143,0r0,-1088r143,0r0,159","w":616},"s":{"d":"103,-828v0,-164,132,-288,298,-288v100,0,201,49,302,147r-90,93v-75,-73,-148,-109,-219,-109v-128,0,-220,149,-125,251v29,31,83,71,168,115v104,54,175,106,212,156v37,50,55,108,55,171v0,177,-148,324,-329,320v-139,-3,-256,-68,-321,-154r88,-100v71,81,147,121,227,121v148,0,267,-167,163,-288v-26,-31,-85,-69,-176,-116v-98,-51,-165,-101,-200,-150v-35,-49,-53,-106,-53,-169","w":795},"t":{"d":"278,-1492r141,0r0,404r222,0r0,120r-222,0r0,968r-141,0r0,-968r-191,0r0,-120r191,0r0,-404","w":694},"u":{"d":"138,-1088r141,0v5,233,-22,584,20,764v30,129,156,216,316,216v157,0,279,-85,311,-205v44,-165,15,-549,21,-775r143,0r0,534v0,279,-53,415,-210,518v-132,86,-398,86,-530,0v-159,-104,-212,-243,-212,-528r0,-524","w":1245},"v":{"d":"53,-1088r149,0r364,792r361,-792r150,0r-498,1088r-25,0"},"w":{"d":"9,-1088r144,0r333,790r349,-790r25,0r348,790r339,-790r146,0r-472,1088r-27,0r-346,-779r-349,779r-26,0","w":1702},"x":{"d":"32,-1088r168,0r288,403r288,-403r168,0r-372,517r419,571r-170,0r-333,-457r-328,457r-167,0r412,-571","w":983},"y":{"d":"39,-1088r148,0r374,838r363,-838r149,0r-649,1486r-148,0r210,-480","w":1098},"z":{"d":"67,-1088r799,0r-616,964r596,0r0,124r-837,0r616,-965r-558,0r0,-123","w":870},"{":{"d":"242,-510v166,78,206,187,209,451v2,197,-11,220,29,310v37,41,71,41,174,43r0,157v-229,14,-334,-56,-362,-246v-11,-74,-7,-433,-30,-495v-30,-81,-86,-135,-187,-138r0,-163v148,-10,195,-95,204,-248v4,-68,6,-391,25,-447v49,-143,146,-197,350,-185r0,157v-166,-2,-203,28,-203,206v0,155,-2,254,-7,297v-20,171,-73,236,-202,301","w":719},"|":{"d":"616,-1508r143,0r0,1906r-143,0r0,-1906","w":1376},"}":{"d":"477,-510v-170,-88,-209,-180,-209,-450v0,-147,-4,-233,-9,-259v-17,-88,-78,-96,-194,-95r0,-157v228,-14,334,57,362,246v11,74,8,433,31,495v30,81,84,136,186,139r0,163v-92,1,-147,41,-174,103v-45,102,-30,164,-34,355v-4,186,-8,267,-83,350v-58,65,-151,75,-288,71r0,-157v166,2,203,-27,203,-205v0,-159,3,-261,8,-304v18,-160,80,-241,201,-295","w":719},"~":{"d":"874,-726v119,0,124,-39,254,-111r0,162v-116,61,-139,96,-252,96v-63,0,-151,-28,-265,-77v-130,-56,-135,-83,-237,-83v-115,0,-147,41,-262,105r0,-160v115,-60,138,-96,254,-96v65,0,153,29,268,81v118,54,137,83,240,83","w":1241},"\u00a0":{"w":567}}});
/*!
 * The following copyright notice may not be removed under any circumstances.
 * 
 * Copyright:
 * Typeface © The Monotype Corporation plc. Data © The Monotype Corporation plc /
 * Type Solutions Inc. 1990-91 All Rights Reserved
 * 
 * Trademark:
 * Century Gothic is a trademark of The Monotype Corporation plc.
 * 
 * Description:
 * A design based on Monotype 20th Century, which was drawn by Sol Hess between
 * 1936 and 1947. Century Gothic maintains the basic design of 20th Century but has
 * an enlarged 'x' height and has been modified to ensure satisfactory output from
 * modern digital systems. The design is influenced by the geometric style sans
 * serif faces which were popular during the 1920's and 30's. Useful for headlines
 * and general display work and for small quantities of text, particularly in
 * advertising.
 * 
 * Manufacturer:
 * Monotype Typography, Inc.
 * 
 * Designer:
 * Monotype Type Drawing Office
 * 
 * Vendor URL:
 * http://www.monotype.com/html/mtname/ms_welcome.html
 * 
 * License information:
 * http://www.monotype.com/html/type/license.html
 */
Cufon.registerFont({"w":1147,"face":{"font-family":"Century Gothic","font-weight":700,"font-stretch":"normal","units-per-em":"2048","panose-1":"2 11 7 2 2 2 2 2 2 4","ascent":"1638","descent":"-410","x-height":"28","bbox":"-87 -1679 1803 451.41","underline-thickness":"184","underline-position":"-96","unicode-range":"U+0020-U+007E"},"glyphs":{" ":{"w":573},"!":{"d":"148,-1508r276,0r0,1075r-276,0r0,-1075xm115,-143v0,-92,79,-171,171,-171v92,0,172,79,172,171v0,91,-80,171,-172,171v-92,0,-171,-79,-171,-171","w":573},"\"":{"d":"653,-1004r-156,0r-55,-504r267,0xm242,-1004r-156,0r-55,-504r267,0","w":737},"#":{"d":"1110,-678r0,199r-231,0r-71,479r-201,0r70,-479r-191,0r-70,479r-200,0r70,-479r-225,0r0,-199r256,0r30,-188r-223,0r0,-199r251,0r65,-443r195,0r-62,443r191,0r65,-443r201,0r-65,443r202,0r0,199r-231,0r-26,188r200,0xm736,-866r-194,0r-26,188r189,0","w":1229},"$":{"d":"139,-1134v-4,-207,180,-371,388,-374r0,-100r188,0r0,113v158,40,211,83,324,194r-193,188v-88,-91,-175,-136,-261,-136v-130,0,-229,128,-129,223v29,28,83,62,166,96v148,61,249,114,304,157v100,79,169,194,170,360v1,156,-76,293,-168,361v-49,37,-120,66,-213,85r0,267r-188,0r0,-261v-218,-26,-330,-125,-457,-252r190,-195v122,130,240,195,354,195v111,0,218,-95,212,-203v-7,-134,-76,-168,-198,-227v-158,-75,-266,-132,-322,-175v-96,-73,-164,-169,-167,-316"},"%":{"d":"894,-1442v182,-6,334,-33,458,-94r202,0r-1166,1636r-202,0r997,-1405v-151,25,-297,39,-461,23v89,248,-95,477,-327,477v-190,0,-357,-160,-353,-349v4,-201,151,-354,341,-354v137,0,381,71,511,66xm562,-1157v0,-91,-78,-168,-169,-168v-90,0,-169,78,-169,168v0,91,78,169,169,169v91,0,169,-78,169,-169xm1017,-311v0,-189,162,-352,351,-352v188,0,351,163,351,352v0,188,-163,351,-351,351v-189,0,-351,-163,-351,-351xm1536,-312v0,-91,-78,-170,-169,-170v-92,0,-170,79,-170,170v0,91,78,170,170,170v91,0,169,-79,169,-170","w":1761},"&":{"d":"97,-316v7,-215,109,-314,261,-436v-147,-212,-204,-361,-47,-553v114,-139,417,-137,531,-1v98,117,122,237,50,373v-27,52,-94,127,-196,228v119,141,196,228,231,263v21,-16,76,-61,163,-136r167,191r-151,137r236,250r-339,0r-97,-100v-155,91,-298,137,-431,137v-216,0,-385,-144,-378,-353xm578,-1156v-49,0,-91,43,-91,90v0,48,24,103,71,164v74,-63,111,-119,111,-168v1,-51,-39,-86,-91,-86xm358,-331v1,63,71,115,143,115v59,0,134,-26,223,-78v-51,-51,-124,-135,-217,-252v-99,82,-149,154,-149,215","w":1393},"'":{"d":"303,-1004r-156,0r-55,-504r266,0","w":451},"(":{"d":"93,-571v0,-440,99,-678,287,-965r346,0v-220,251,-353,531,-353,973v0,463,119,702,353,989r-346,0v-194,-316,-287,-534,-287,-997","w":778},")":{"d":"686,-539v0,440,-99,678,-287,965r-346,0v220,-252,353,-530,353,-973v0,-464,-120,-700,-353,-989r346,0v194,316,287,534,287,997","w":778},"*":{"d":"331,-1508r254,0r-79,301r226,-213r117,220r-305,78r305,87r-132,217r-218,-217r77,300r-245,0r77,-300r-223,217r-133,-217r306,-87r-306,-85r133,-223r223,223","w":901},"+":{"d":"490,-860r0,-375r250,0r0,375r374,0r0,250r-374,0r0,374r-250,0r0,-374r-375,0r0,-250r375,0","w":1229},",":{"d":"269,-277r195,98r-247,422r-136,-65","w":573},"-":{"d":"176,-669r508,0r0,254r-508,0r0,-254","w":860},"\u00ad":{"d":"176,-669r508,0r0,254r-508,0r0,-254","w":860},".":{"d":"130,-129v0,-84,73,-156,157,-156v84,0,157,72,157,156v0,84,-73,157,-157,157v-84,0,-157,-73,-157,-157","w":573},"\/":{"d":"44,262r661,-1775r194,0r-662,1775r-193,0","w":942},"0":{"d":"569,-1508v243,0,379,128,457,320v81,197,82,714,0,909v-82,195,-199,316,-449,316v-246,0,-379,-121,-456,-311v-43,-105,-64,-254,-64,-447v0,-270,41,-466,125,-587v92,-134,222,-200,387,-200xm746,-1132v-70,-113,-194,-144,-296,-64v-37,30,-65,82,-84,156v-19,74,-29,182,-29,325v0,186,25,313,67,385v80,136,247,139,334,6v86,-131,89,-678,8,-808"},"1":{"d":"337,-1471r419,0r0,1471r-278,0r0,-1208r-303,0"},"2":{"d":"571,-1246v-130,2,-213,111,-214,249r-273,0v8,-300,206,-512,505,-511v193,1,327,89,401,220v94,166,69,318,-14,498v-68,148,-295,382,-437,531r524,0r0,259r-1019,0r0,-134r455,-464v110,-111,183,-200,219,-268v36,-68,55,-129,55,-184v2,-113,-87,-198,-202,-196"},"3":{"d":"565,-1239v-85,4,-156,61,-176,131r-269,0v25,-238,213,-400,454,-400v226,0,430,174,426,388v-3,153,-92,254,-209,310v163,46,283,178,285,374v3,269,-235,473,-518,473v-291,0,-485,-198,-497,-482r277,0v20,137,94,222,235,225v125,4,231,-96,227,-217v-5,-157,-152,-243,-338,-240r0,-240v119,-10,180,-30,228,-96v71,-98,-3,-231,-125,-226"},"4":{"d":"678,-1508r280,0r0,947r131,0r0,259r-131,0r0,302r-274,0r0,-302r-642,0r0,-259xm684,-561r0,-493r-336,493r336,0"},"5":{"d":"570,-695v-80,2,-131,42,-178,92r-228,-51r178,-817r689,0r0,258r-480,0r-60,268v314,-73,560,171,560,472v0,278,-228,513,-503,510v-265,-3,-453,-170,-500,-400r294,0v38,80,107,138,212,140v126,2,223,-107,223,-239v0,-126,-89,-235,-207,-233"},"6":{"d":"565,37v-294,0,-538,-281,-443,-593v14,-46,45,-117,94,-212r378,-740r238,119r-257,500v248,-5,449,213,449,467v0,249,-212,459,-459,459xm750,-426v0,-110,-83,-198,-191,-198v-105,0,-184,90,-184,198v0,106,85,201,185,201v105,0,190,-91,190,-201"},"7":{"d":"123,-1471r965,0r0,147r-664,1361r-237,-115r552,-1130r-616,0r0,-263"},"8":{"d":"1012,-1095v0,143,-53,203,-137,298v119,74,209,206,209,382v0,182,-106,330,-234,397v-133,70,-426,68,-556,2v-129,-66,-233,-212,-231,-399v2,-181,85,-295,202,-382v-76,-77,-133,-168,-133,-302v0,-254,180,-409,442,-409v261,0,438,164,438,413xm732,-1078v0,-95,-70,-160,-167,-160v-91,0,-158,70,-158,162v0,92,72,167,163,167v95,0,162,-73,162,-169xm807,-434v0,-122,-106,-214,-231,-214v-124,0,-239,91,-239,208v0,123,105,212,236,212v134,0,234,-80,234,-206"},"9":{"d":"582,-1508v294,0,539,282,444,594v-14,46,-46,116,-95,211r-378,740r-238,-118r257,-500v-248,5,-449,-213,-449,-467v0,-250,211,-460,459,-460xm397,-1045v0,109,83,199,191,199v104,0,184,-91,184,-198v0,-107,-84,-202,-185,-202v-104,0,-190,93,-190,201"},":":{"d":"130,-959v0,-84,73,-157,157,-157v84,0,157,73,157,157v0,83,-73,156,-157,156v-84,0,-157,-72,-157,-156xm130,-129v0,-84,73,-156,157,-156v84,0,157,72,157,156v0,84,-73,157,-157,157v-84,0,-157,-73,-157,-157","w":573},";":{"d":"130,-959v0,-84,73,-157,157,-157v84,0,157,73,157,157v0,84,-73,156,-157,156v-84,0,-157,-72,-157,-156xm271,-278r191,100r-245,421r-137,-66","w":573},"\u037e":{"d":"130,-959v0,-84,73,-157,157,-157v84,0,157,73,157,157v0,84,-73,156,-157,156v-84,0,-157,-72,-157,-156xm271,-278r191,100r-245,421r-137,-66","w":573},"<":{"d":"1114,-366r0,250r-999,-508r0,-222r999,-508r0,249r-712,370","w":1229},"=":{"d":"115,-1074r999,0r0,250r-999,0r0,-250xm115,-646r999,0r0,250r-999,0r0,-250","w":1229},">":{"d":"115,-1105r0,-249r999,508r0,222r-999,508r0,-250r713,-369","w":1229},"?":{"d":"573,-1286v-118,0,-211,80,-211,195r-262,0v-5,-264,210,-449,485,-445v196,3,320,79,399,202v88,137,69,326,-20,439v-18,36,-203,193,-224,229v-36,60,-52,129,-56,237r-271,0v-9,-236,70,-374,207,-494v71,-62,113,-105,128,-128v69,-119,-36,-235,-175,-235xm382,-144v0,-92,79,-171,171,-171v94,0,176,78,176,171v0,93,-81,172,-174,172v-93,0,-173,-80,-173,-172"},"@":{"d":"812,-121v192,0,292,-72,416,-180r191,0v-130,157,-201,233,-390,293v-220,70,-447,33,-630,-70v-218,-123,-391,-362,-391,-676v0,-312,174,-565,390,-684v121,-67,252,-102,396,-102v371,0,713,293,713,642v0,266,-138,441,-322,535v-76,39,-140,58,-191,58v-71,0,-121,-30,-122,-107v-59,65,-130,97,-214,97v-196,1,-331,-161,-331,-370v0,-241,175,-484,424,-476v119,4,195,52,247,131r21,-105r196,0r-109,653v0,15,19,33,35,30v138,-29,232,-206,229,-389v-6,-347,-232,-552,-580,-552v-262,0,-451,130,-552,309v-109,193,-108,461,1,652v103,180,306,311,573,311xm573,-705v0,103,66,179,166,179v115,0,201,-119,201,-233v0,-99,-68,-177,-163,-177v-112,0,-204,113,-204,231","w":1515},"A":{"d":"616,-1471r284,0r566,1471r-291,0r-115,-303r-600,0r-120,303r-291,0xm760,-1081r-196,505r391,0","w":1515},"B":{"d":"830,-810v157,74,255,178,258,381v3,175,-107,318,-229,379v-154,77,-459,42,-691,50r0,-1471v165,0,422,-2,525,26v159,44,288,167,288,354v0,137,-60,212,-151,281xm710,-1054v0,-128,-116,-161,-262,-150r0,310v149,10,262,-28,262,-160xm813,-439v0,-173,-158,-214,-365,-205r0,377v200,1,365,-1,365,-172","w":1188},"C":{"d":"875,37v-448,10,-786,-329,-780,-775v5,-323,162,-541,385,-666v225,-126,507,-139,750,-27v112,51,209,124,290,219r-196,187v-133,-141,-283,-211,-450,-211v-275,0,-506,225,-500,499v6,308,202,505,505,505v218,0,307,-80,445,-211r190,198v-191,180,-325,275,-639,282","w":1597},"D":{"d":"169,-1471v281,-1,653,-6,809,79v201,110,361,364,358,677v-3,344,-172,591,-428,679v-132,45,-513,35,-739,36r0,-1471xm1053,-722v-5,-316,-166,-485,-510,-479r-95,0r0,927v146,2,335,-4,408,-44v118,-66,200,-213,197,-404","w":1434},"E":{"d":"169,-1471r803,0r0,274r-525,0r0,266r525,0r0,269r-525,0r0,387r525,0r0,275r-803,0r0,-1471","w":1065},"F":{"d":"172,-1471r730,0r0,273r-453,0r0,267r453,0r0,269r-453,0r0,662r-277,0r0,-1471","w":983},"G":{"d":"383,-740v0,281,241,515,527,509v215,-5,331,-93,405,-252r-426,0r0,-263r740,0v23,316,-153,573,-357,692v-217,126,-563,114,-782,-8v-214,-119,-388,-371,-388,-681v0,-195,64,-364,193,-508v153,-171,351,-257,596,-257v290,0,475,98,635,277r-197,195v-125,-132,-270,-198,-436,-198v-278,0,-510,222,-510,494","w":1720},"H":{"d":"167,-1471r284,0r0,555r492,0r0,-555r283,0r0,1471r-283,0r0,-645r-492,0r0,645r-284,0r0,-1471","w":1393},"I":{"d":"148,-1471r278,0r0,1471r-278,0r0,-1471","w":573},"J":{"d":"240,-365v71,76,105,128,205,128v30,0,52,-13,67,-38v15,-25,22,-81,22,-167r0,-1029r281,0r0,976v-3,273,-19,378,-159,477v-55,39,-125,55,-204,55v-162,0,-300,-71,-414,-213","w":983},"K":{"d":"170,-1471r283,0r0,506r399,-506r337,0r-514,656r564,815r-332,0r-454,-653r0,653r-283,0r0,-1471","w":1270},"L":{"d":"168,-1471r280,0r0,1204r408,0r0,267r-688,0r0,-1471","w":901},"M":{"d":"310,-1471r274,0r340,1026r345,-1026r270,0r248,1471r-270,0r-158,-929r-313,929r-247,0r-309,-929r-161,929r-273,0","w":1843},"N":{"d":"169,-1471r268,0r631,968r0,-968r280,0r0,1471r-269,0r-630,-965r0,965r-280,0r0,-1471","w":1515},"O":{"d":"865,37v-425,0,-775,-359,-769,-773v4,-310,169,-547,382,-668v120,-68,248,-104,385,-104v410,0,761,361,761,777v0,416,-346,768,-759,768xm1344,-733v0,-270,-218,-501,-484,-501v-272,0,-482,224,-482,503v0,276,214,497,487,497v263,0,479,-230,479,-499","w":1720},"P":{"d":"167,-1471v209,1,524,-8,645,45v135,59,229,192,229,382v0,215,-126,349,-299,398v-54,15,-152,23,-295,23r0,623r-280,0r0,-1471xm770,-1044v-5,-125,-85,-155,-244,-153r-79,0r0,301v75,0,197,0,235,-15v51,-20,91,-65,88,-133"},"Q":{"d":"862,-1508v411,0,762,360,762,777v0,199,-65,371,-194,516r256,331r-332,0r-130,-167v-107,59,-227,88,-359,88v-426,0,-775,-357,-769,-773v5,-310,169,-546,382,-668v120,-68,247,-104,384,-104xm378,-731v0,338,337,598,674,458r-263,-339r334,0r132,171v59,-88,89,-185,89,-292v0,-268,-219,-501,-482,-501v-274,0,-484,223,-484,503","w":1720},"R":{"d":"1061,-1044v-3,213,-109,330,-279,390r348,654r-306,0r-331,-623r-26,0r0,623r-280,0r0,-1471v207,1,527,-9,645,43v132,58,230,198,229,384xm555,-896v154,-3,231,-20,235,-151v2,-67,-41,-115,-92,-135v-35,-14,-156,-16,-231,-15r0,301r88,0","w":1188},"S":{"d":"110,-1136v0,-206,190,-381,404,-372v208,9,298,94,425,237r-207,183v-73,-101,-147,-152,-222,-152v-95,0,-164,91,-100,166v17,36,369,326,399,358v93,100,153,175,156,336v5,245,-197,423,-451,417v-249,-6,-377,-129,-473,-319r235,-142v71,130,152,195,244,195v86,0,170,-61,170,-139v0,-33,-12,-67,-37,-100v-25,-33,-79,-84,-163,-153v-160,-131,-263,-232,-310,-303v-47,-71,-70,-141,-70,-212","w":1065},"T":{"d":"23,-1471r813,0r0,276r-268,0r0,1195r-284,0r0,-1195r-261,0r0,-276","w":860},"U":{"d":"158,-1471r281,0r0,952v1,147,14,202,93,255v65,43,182,41,246,-3v89,-62,95,-114,95,-287r0,-917r281,0r0,877v-3,272,-7,341,-120,474v-86,101,-200,155,-377,157v-212,2,-383,-113,-448,-257v-34,-74,-51,-199,-51,-374r0,-877","w":1311},"V":{"d":"56,-1471r288,0r370,1045r375,-1045r288,0r-530,1471r-270,0","w":1434},"W":{"d":"56,-1471r276,0r212,939r263,-939r233,0r266,939r210,-939r276,0r-331,1471r-269,0r-271,-951r-266,951r-266,0","w":1843},"X":{"d":"72,-1471r315,0r308,471r311,-471r315,0r-468,712r497,759r-315,0r-340,-517r-337,517r-317,0r497,-759","w":1393},"Y":{"d":"63,-1471r301,0r274,528r272,-528r297,0r-430,834r0,637r-282,0r0,-637","w":1270},"Z":{"d":"90,-1471r890,0r-525,1202r491,0r0,269r-899,0r523,-1194r-480,0r0,-277","w":1024},"[":{"d":"169,-1508r438,0r0,255r-162,0r0,1397r162,0r0,254r-438,0r0,-1906","w":655},"\\":{"d":"1082,262r-193,0r-661,-1775r193,0","w":1311},"]":{"d":"486,398r-438,0r0,-255r162,0r0,-1397r-162,0r0,-254r438,0r0,1906","w":655},"^":{"d":"497,-1471r232,0r390,1105r-242,0r-262,-748r-263,748r-243,0","w":1229},"_":{"d":"-12,154r1048,0r0,102r-1048,0r0,-102","w":1024},"`":{"d":"382,-1679r239,392r-196,0r-366,-392r323,0","w":860},"a":{"d":"599,-1116v153,2,258,62,343,148r0,-120r272,0r0,1088r-272,0r0,-115v-93,87,-180,140,-335,143v-286,5,-519,-268,-519,-570v0,-312,218,-577,511,-574xm955,-546v0,-181,-125,-318,-300,-318v-171,0,-295,142,-295,319v0,177,126,323,296,323v175,0,299,-141,299,-324","w":1352},"b":{"d":"745,28v-154,-3,-244,-57,-336,-143r0,115r-271,0r0,-1508r271,0r0,540v87,-86,190,-146,344,-148v293,-4,511,262,511,574v0,303,-232,575,-519,570xm992,-545v0,-178,-124,-319,-296,-319v-174,0,-299,138,-299,318v0,183,124,324,299,324v169,0,296,-146,296,-323","w":1352},"c":{"d":"361,-536v0,186,140,315,330,315v122,0,217,-42,285,-125r215,147v-117,151,-281,227,-494,227v-191,0,-339,-58,-449,-170v-176,-179,-216,-461,-84,-689v95,-165,289,-285,537,-285v233,0,403,102,502,248r-227,125v-77,-78,-137,-116,-273,-119v-196,-4,-342,134,-342,326","w":1311},"d":{"d":"599,-1116v153,2,258,62,343,148r0,-540r272,0r0,1508r-272,0r0,-115v-93,87,-180,140,-335,143v-286,5,-519,-268,-519,-570v0,-312,218,-577,511,-574xm955,-546v0,-181,-125,-318,-300,-318v-171,0,-295,142,-295,319v0,177,126,323,296,323v175,0,299,-141,299,-324","w":1352},"e":{"d":"650,-1116v359,0,605,265,578,651r-877,0v23,150,140,254,312,253v102,0,190,-36,263,-107r230,108v-107,151,-250,235,-491,239v-330,6,-578,-243,-578,-566v0,-322,244,-578,563,-578xm954,-680v-32,-115,-148,-209,-291,-205v-154,4,-245,71,-300,205r591,0","w":1311},"f":{"d":"562,-1289v-84,-22,-182,-42,-183,65r-1,136r173,0r0,232r-173,0r0,856r-273,0r0,-856r-97,0r0,-232r97,0v1,-143,3,-227,7,-253v16,-125,109,-197,258,-195v57,0,121,13,192,39r0,208","w":573},"g":{"d":"597,-1116v157,1,250,59,345,148r0,-120r272,0r0,932v6,401,-192,577,-560,582v-309,4,-485,-120,-564,-346r301,0v53,61,137,93,252,93v134,0,228,-42,271,-122v19,-36,28,-98,28,-186v-87,86,-175,132,-330,135v-295,5,-521,-252,-521,-558v0,-308,213,-561,506,-558xm956,-555v0,-176,-123,-306,-297,-306v-169,0,-297,134,-297,304v0,175,130,310,302,310v171,0,292,-132,292,-308","w":1352},"h":{"d":"735,-1116v215,0,368,151,368,397r0,719r-269,0r0,-477v0,-126,-6,-211,-18,-256v-21,-82,-75,-133,-169,-133v-124,0,-204,93,-225,205v-27,144,-9,472,-12,661r-271,0r0,-1508r271,0r0,530v90,-76,185,-138,325,-138","w":1229},"i":{"d":"71,-1362v0,-93,81,-174,174,-174v94,0,175,83,175,178v0,94,-80,176,-173,176v-96,0,-176,-84,-176,-180xm108,-1088r274,0r0,1088r-274,0r0,-1088","w":491},"j":{"d":"93,-1362v0,-93,80,-174,173,-174v95,0,176,82,176,178v0,94,-80,177,-173,177v-96,0,-176,-85,-176,-181xm26,201v83,0,104,-48,104,-145r0,-1144r273,0r0,1124v-1,187,-23,285,-127,349v-107,66,-222,48,-363,0r0,-215v43,21,80,31,113,31","w":532},"k":{"d":"140,-1508r273,0r0,869r402,-449r342,0r-468,522r525,566r-339,0r-462,-501r0,501r-273,0r0,-1508","w":1188},"l":{"d":"109,-1508r273,0r0,1508r-273,0r0,-1508","w":491},"m":{"d":"1068,-920v76,-113,195,-194,366,-196v157,-2,282,84,330,195v26,58,39,152,39,283r0,638r-275,0r0,-552v0,-123,-17,-205,-46,-250v-52,-79,-187,-86,-264,-26v-90,70,-108,155,-109,337r0,491r-275,0r0,-527v-1,-164,-10,-247,-86,-309v-61,-50,-166,-41,-228,8v-90,71,-110,161,-110,344r0,484r-274,0r0,-1088r274,0r0,125v83,-91,186,-153,342,-153v154,0,259,83,316,196","w":1925},"n":{"d":"733,-1116v214,0,370,150,370,397r0,719r-270,0r0,-477v0,-130,-5,-216,-17,-259v-21,-79,-76,-131,-169,-131v-125,0,-204,94,-225,209v-26,147,-8,468,-12,658r-272,0r0,-1088r272,0r0,111v103,-84,175,-139,323,-139","w":1229},"o":{"d":"85,-543v0,-305,261,-581,564,-573v332,8,577,237,577,571v0,226,-128,410,-285,497v-89,49,-185,76,-291,76v-305,0,-565,-264,-565,-571xm950,-544v0,-179,-122,-315,-297,-315v-170,0,-296,140,-296,315v0,180,122,318,295,318v172,0,298,-140,298,-318","w":1311},"p":{"d":"745,28v-154,-3,-244,-57,-336,-143r0,513r-271,0r0,-1486r271,0r0,120v87,-86,190,-146,344,-148v293,-4,511,262,511,574v0,303,-232,575,-519,570xm992,-545v0,-178,-124,-319,-296,-319v-174,0,-299,138,-299,318v0,183,124,324,299,324v169,0,296,-146,296,-323","w":1352},"q":{"d":"599,-1116v153,2,258,62,343,148r0,-120r272,0r0,1486r-272,0r0,-513v-93,87,-180,140,-335,143v-286,5,-519,-268,-519,-570v0,-312,218,-577,511,-574xm955,-546v0,-181,-125,-318,-300,-318v-171,0,-295,142,-295,319v0,177,126,323,296,323v175,0,299,-141,299,-324","w":1352},"r":{"d":"308,-951v50,-123,200,-211,350,-137r-85,235v-86,-45,-135,-26,-185,54v-32,50,-43,214,-43,359r0,440r-271,0r0,-1088r234,0r0,137","w":655},"s":{"d":"92,-804v0,-178,163,-317,354,-312v161,4,283,78,358,180r-169,169v-69,-68,-131,-102,-187,-102v-70,0,-129,57,-82,109v27,31,131,74,182,100v105,53,178,105,217,159v39,54,59,117,59,190v0,203,-172,339,-392,339v-159,0,-285,-62,-380,-186r168,-183v49,59,139,121,227,125v62,3,115,-34,120,-86v7,-66,-141,-134,-211,-169v-177,-87,-264,-200,-264,-333","w":901},"t":{"d":"171,-1489r272,0r0,401r162,0r0,235r-162,0r0,853r-272,0r0,-853r-140,0r0,-235r140,0r0,-401","w":614},"u":{"d":"137,-1088r276,0r0,524v2,173,7,240,89,305v57,46,172,46,230,1v81,-63,87,-117,87,-297r0,-533r274,0v-5,260,21,696,-45,851v-70,164,-205,265,-434,265v-243,1,-387,-117,-445,-303v-49,-158,-28,-571,-32,-813","w":1229},"v":{"d":"21,-1088r278,0r275,642r274,-642r277,0r-463,1088r-177,0"},"w":{"d":"17,-1088r267,0r219,619r236,-619r163,0r231,612r219,-612r269,0r-397,1088r-173,0r-232,-620r-239,620r-171,0","w":1638},"x":{"d":"40,-1088r317,0r213,297r216,-297r314,0r-372,515r418,573r-317,0r-259,-357r-256,357r-313,0r412,-573"},"y":{"d":"17,-1088r279,0r283,683r312,-683r280,0r-682,1486r-282,0r224,-479","w":1188},"z":{"d":"91,-1088r835,0r-490,857r462,0r0,231r-882,0r492,-857r-417,0r0,-231","w":942},"{":{"d":"644,451v-328,0,-412,-104,-412,-447v0,-127,-6,-212,-20,-256v-31,-92,-80,-131,-199,-138r0,-240v119,-6,161,-43,197,-132v32,-79,20,-424,40,-494v51,-181,203,-220,447,-215r0,240v-156,2,-201,2,-204,145v-4,151,2,356,-67,462v-25,38,-64,78,-121,115v97,57,154,136,173,270v7,2,8,313,25,388v33,60,77,61,194,63r0,239r-53,0","w":696},"|":{"d":"536,-1508r158,0r0,1906r-158,0r0,-1906","w":1229},"}":{"d":"52,-1471v327,1,412,104,412,448v0,127,6,212,20,256v31,92,79,130,199,137r0,240v-119,7,-160,42,-197,132v-32,79,-21,423,-40,494v-50,181,-204,220,-447,215r0,-239v156,-2,200,-2,204,-145v4,-151,-4,-356,66,-462v26,-39,65,-78,122,-115v-97,-57,-154,-136,-173,-271v-8,-1,-7,-315,-26,-387v-32,-61,-77,-61,-193,-63r0,-240r53,0","w":696},"~":{"d":"404,-668v-142,-31,-202,27,-304,104r0,-319v161,-73,228,-92,390,-53v60,14,246,109,313,131v23,8,46,10,69,10v74,0,160,-38,258,-113r0,322v-126,70,-233,87,-380,54v-49,-11,-276,-121,-346,-136","w":1229},"\u00a0":{"w":573}}});
